svm_type epsilon_svr
kernel_type rbf
gamma 0.05
nr_class 2
total_sv 442
rho -70.5365
probA 6.9393
SV
1024 1:-0.913587 2:-0.118194 
1024 1:-0.095898 2:-0.0952496 
1024 1:-0.685732 2:0.543007 
1024 1:-0.102523 2:-0.293263 
1024 1:0.612737 2:-0.702887 
-1024 1:0.182022 2:-0.494878 
-1024 1:-0.117838 2:-0.37078 
-1024 1:-0.0694271 2:-0.0719463 
-1024 1:-0.787694 2:0.650326 
-1024 1:-0.236906 2:-0.180231 
1024 1:-0.152152 2:0.393823 
366.88606354898 1:0.70895 2:-0.208938 
1024 1:0.533487 2:-0.546641 
-1024 1:0.0657232 2:-0.289543 
-1024 1:-0.31584 2:-0.183406 
-1024 1:0.3791 2:-0.877931 
-1024 1:0.388699 2:-0.542859 
-1024 1:-0.303978 2:0.207155 
-1024 1:-0.531872 2:0.130672 
-1024 1:0.125572 2:-0.430019 
1024 1:-0.277224 2:-0.200272 
1024 1:0.334398 2:-0.573088 
-1024 1:0.123109 2:-0.245146 
1024 1:0.451643 2:-0.728382 
1024 1:-0.0706399 2:-0.199078 
1024 1:-0.725316 2:0.326451 
-1024 1:-0.785894 2:0.693863 
1024 1:0.0394154 2:0.576994 
-1024 1:0.0625578 2:-0.316096 
-1024 1:0.691801 2:-0.490973 
-1024 1:-0.450088 2:0.0119828 
-1024 1:-0.458453 2:0.18522 
1024 1:-0.559615 2:0.662099 
1024 1:0.211659 2:-0.576591 
-1024 1:-0.601293 2:0.303054 
1024 1:0.123381 2:0.471971 
-1024 1:-0.498619 2:0.52629 
1024 1:-0.180005 2:-0.230991 
1024 1:-0.737254 2:-0.444768 
1024 1:-0.639006 2:0.488268 
-1024 1:-0.260657 2:0.12642 
1024 1:-0.379165 2:-0.125126 
-1024 1:0.619824 2:-0.437347 
1024 1:-0.118018 2:-0.3968 
1024 1:-0.821127 2:0.863046 
1024 1:0.122641 2:-0.250475 
-1024 1:0.372187 2:-0.529292 
-1024 1:0.442593 2:-0.859505 
-487.1409035672149 1:0.0419554 2:-0.483044 
1024 1:0.328534 2:-0.2601 
1024 1:0.752069 2:-0.773268 
-1024 1:-0.0971707 2:-0.338044 
1021.859850154662 1:-0.516262 2:0.563259 
1024 1:0.555248 2:-0.433157 
-1024 1:-0.042434 2:-0.22979 
-1024 1:-0.644184 2:0.189917 
1024 1:-0.542782 2:0.527868 
1024 1:-0.0285214 2:-0.609866 
1024 1:-0.278502 2:0.0205057 
-649.6278733896446 1:-0.692373 2:-0.438517 
1024 1:0.513711 2:-0.422486 
1024 1:-0.113999 2:0.0458144 
1024 1:-0.793198 2:1 
-1024 1:0.884098 2:-0.919785 
-1024 1:-0.428495 2:-0.600638 
-1024 1:-0.518285 2:0.189082 
-1024 1:-0.524643 2:0.56714 
-1024 1:0.922067 2:-1 
1024 1:1 2:-0.980367 
1024 1:-0.334833 2:-0.1757 
1024 1:-0.226817 2:0.112042 
-1024 1:0.641378 2:-0.624826 
-1024 1:-0.328518 2:0.500678 
-1024 1:-0.507255 2:0.523517 
1024 1:0.122189 2:-0.385715 
1024 1:-0.647322 2:0.471247 
1024 1:0.243346 2:-0.555065 
-1024 1:-0.114651 2:-0.0939808 
-1024 1:-0.456119 2:0.170551 
1024 1:-0.483781 2:0.234717 
1024 1:-0.328344 2:0.557534 
-1024 1:-0.234263 2:-0.133296 
1024 1:0.060578 2:-0.606889 
-1024 1:0.353428 2:0.115594 
1024 1:-0.428441 2:0.62594 
-1024 1:-0.470995 2:0.413642 
1024 1:-0.927799 2:0.810974 
-1024 1:-0.485913 2:0.097484 
-1024 1:-0.655579 2:-0.274663 
1024 1:0.162997 2:-0.386563 
-1024 1:-0.169877 2:-0.426014 
1024 1:-0.896221 2:0.547916 
-1024 1:-0.019395 2:0.0792189 
-1024 1:-0.180945 2:0.104138 
-1024 1:0.475351 2:-0.384762 
1024 1:-0.190164 2:-0.240993 
1024 1:0.00367667 2:-0.29122 
-1024 1:-0.741219 2:0.674917 
-1024 1:-0.844682 2:-0.348751 
-1024 1:0.187091 2:-0.271012 
-1024 1:0.43401 2:-0.60471 
-1024 1:-0.332021 2:0.145917 
-1024 1:-0.650559 2:0.456485 
-1024 1:0.263415 2:-0.0287872 
1024 1:-0.382983 2:0.408226 
1024 1:-0.355615 2:0.78764 
-1024 1:-0.523028 2:-0.599022 
-1024 1:0.183339 2:-0.405571 
1024 1:0.599868 2:0.084907 
1024 1:-0.692416 2:0.232105 
-1024 1:-0.391593 2:0.397877 
1024 1:0.503209 2:-0.70298 
1024 1:0.0998303 2:-0.59433 
1024 1:0.452753 2:-0.748318 
-1024 1:0.0948211 2:0.0845666 
1024 1:0.522832 2:-0.662216 
1024 1:0.101821 2:-0.56623 
-1024 1:-0.530322 2:-0.464723 
1024 1:0.156933 2:-0.397023 
1024 1:-0.14816 2:-0.401677 
-1024 1:-0.138887 2:-0.0941293 
1024 1:0.0193352 2:0.348386 
-1024 1:0.380361 2:-0.235534 
1024 1:0.375026 2:-0.767833 
-1024 1:-0.170851 2:-0.22157 
-1024 1:-0.143646 2:0.0474979 
1024 1:-0.722901 2:0.436196 
-1024 1:-0.0820996 2:-0.468753 
1024 1:0.324254 2:-0.833757 
1024 1:-0.745864 2:0.870164 
-1024 1:0.958676 2:-0.674923 
-1024 1:-0.335812 2:0.265119 
1024 1:-0.933369 2:0.435428 
-1024 1:-0.44454 2:0.11466 
-1024 1:-0.336443 2:-0.135122 
-1024 1:0.126921 2:-0.231368 
-1024 1:-0.0793312 2:-0.25274 
-1024 1:0.250432 2:-0.39948 
1024 1:0.143842 2:-0.206524 
-1024 1:-0.310358 2:0.0845294 
1024 1:-0.645713 2:-0.076706 
1024 1:0.607907 2:-0.81561 
-1024 1:-0.611328 2:0.489469 
1024 1:0.199492 2:-0.244143 
-1024 1:-0.00755458 2:-0.347167 
-1024 1:-0.711811 2:0.437415 
-1024 1:-0.751667 2:0.851632 
-1024 1:-0.376086 2:0.0202148 
-1024 1:-0.51122 2:0.193526 
-1024 1:0.697126 2:-0.803491 
1024 1:0.4438 2:-0.467397 
1024 1:-0.124615 2:-0.170111 
1024 1:-0.737259 2:0.311707 
-1024 1:0.335072 2:-0.530789 
-1024 1:0.222634 2:-0.396367 
-1024 1:0.495072 2:-0.728852 
1024 1:-0.541063 2:-0.0428744 
1024 1:-0.440754 2:0.278953 
1024 1:-0.535489 2:0.0774858 
-1024 1:-0.121292 2:-0.0459444 
1024 1:0.720774 2:-0.578523 
-1024 1:-0.330922 2:-0.350398 
1024 1:-0.657004 2:0.237688 
1024 1:0.455983 2:-0.165147 
-1024 1:0.259744 2:-0.31427 
-1024 1:0.154083 2:-0.199889 
1024 1:-0.283408 2:-0.257611 
1024 1:0.325097 2:-0.391372 
-1024 1:-0.551441 2:0.364138 
1024 1:-0.572516 2:-0.0204066 
-1024 1:-0.660223 2:0.221143 
-1024 1:-0.50235 2:0.469539 
1024 1:0.0397037 2:-0.286064 
1024 1:0.463076 2:-0.71435 
-1024 1:-0.110512 2:-0.047696 
1024 1:0.141927 2:-0.376183 
-1024 1:-0.685302 2:0.329657 
-1024 1:-0.879176 2:0.191694 
1024 1:-0.366971 2:0.390103 
1024 1:-0.37446 2:-0.251663 
1024 1:-0.538643 2:0.34445 
1024 1:-0.00129445 2:-0.592517 
-1024 1:0.236721 2:-0.502745 
-1024 1:0.677133 2:-0.446291 
1024 1:0.235644 2:-0.505499 
-1024 1:-0.437072 2:0.276112 
-1024 1:-0.437089 2:-0.13095 
1024 1:-0.308639 2:-0.0918454 
-1024 1:-0.72686 2:0.639241 
-1024 1:0.0784828 2:-0.265392 
1024 1:0.701135 2:-0.897558 
-1024 1:-1 2:0.74206 
1024 1:-0.103817 2:-0.0701513 
1024 1:-0.757003 2:0.664513 
-1024 1:-0.613786 2:0.547402 
-1024 1:-0.61042 2:0.249311 
-1024 1:0.289097 2:-0.643871 
-1024 1:-0.312115 2:-0.207025 
1024 1:-0.389847 2:-0.290366 
-1024 1:-0.105775 2:0.392795 
1024 1:0.0419826 2:-0.186953 
1024 1:-0.180108 2:-0.0303284 
-1024 1:0.105759 2:-0.44353 
1024 1:-0.0561943 2:0.348974 
1024 1:0.263192 2:-0.485551 
-1024 1:0.0520445 2:-0.22412 
1024 1:-0.201961 2:-0.536781 
-1024 1:-0.306018 2:0.339244 
-1024 1:0.466328 2:-0.729675 
1024 1:-0.183458 2:-0.0939374 
-1024 1:0.0796467 2:0.102169 
-1024 1:0.493294 2:-0.458583 
1024 1:0.137614 2:-0.682592 
1024 1:0.623179 2:-0.718726 
1024 1:-0.34515 2:-0.291944 
-1024 1:-0.512167 2:-0.223681 
1024 1:0.0534096 2:-0.333271 
-1024 1:-0.580022 2:0.663962 
-1024 1:0.609599 2:-0.266648 
-1024 1:-0.298305 2:-0.458274 
1024 1:-0.154126 2:-0.0873333 
-1024 1:-0.435729 2:-0.0757095 
1024 1:-0.800872 2:0.58296 
-1024 1:0.0502496 2:-0.346436 
1024 1:-0.670487 2:0.281466 
-1024 1:-0.468036 2:0.194002 
1024 1:-0.838014 2:0.664445 
1024 1:-0.335975 2:0.0135302 
-1024 1:-0.216782 2:-0.252239 
1024 1:-0.451649 2:0.246186 
-1024 1:-0.378713 2:-0.290688 
1024 1:0.0821214 2:-0.43775 
-1024 1:-0.6305 2:0.298778 
1024 1:-0.36801 2:-0.306162 
1024 1:-0.585945 2:0.11625 
-1024 1:0.416073 2:-0.349971 
-1024 1:-0.159418 2:0.144685 
-1024 1:0.162578 2:-0.407434 
-1024 1:-0.803238 2:-0.295565 
-1024 1:-0.513755 2:0.617974 
-1024 1:0.525231 2:-0.675889 
985.6886165563562 1:-0.565995 2:0.304837 
1024 1:-0.215363 2:-0.241395 
1024 1:-0.149144 2:-0.0213722 
1024 1:-0.315476 2:-0.271197 
-1024 1:-0.453721 2:0.326203 
1024 1:0.71707 2:-0.895082 
-1024 1:-0.565315 2:0.360988 
1024 1:-0.556923 2:0.21392 
1024 1:-0.0290707 2:-0.277554 
1024 1:0.430285 2:-0.466797 
-1024 1:0.244988 2:-0.498796 
-1024 1:0.237635 2:-0.647659 
-1024 1:-0.454314 2:-0.0998793 
-1024 1:-0.486049 2:0.0576858 
1024 1:0.0733648 2:-0.332844 
-1024 1:0.0208635 2:-0.299019 
-1024 1:-0.730978 2:0.577532 
-1024 1:-0.307013 2:0.0684492 
1024 1:-0.718283 2:0.443345 
-1024 1:-0.062362 2:-0.380856 
1024 1:-0.0156857 2:0.137678 
1024 1:-0.886714 2:0.560969 
1024 1:0.14209 2:-0.135277 
1024 1:0.198839 2:-0.19844 
1024 1:0.172031 2:-0.489772 
1024 1:0.368657 2:-0.469124 
1024 1:0.534504 2:-0.757367 
-1024 1:-0.578999 2:-0.444861 
1024 1:-0.253625 2:-0.0363569 
1024 1:-0.162252 2:0.120329 
1024 1:-0.613052 2:0.185591 
1024 1:-0.770698 2:0.471284 
1024 1:0.0114923 2:-0.480871 
1024 1:0.518193 2:-0.74414 
1024 1:0.214596 2:-0.487835 
1024 1:-0.315095 2:0.708247 
-1024 1:-0.410667 2:-0.0548634 
1024 1:-0.784273 2:-0.30407 
1024 1:0.486446 2:-0.453403 
-1024 1:0.00952345 2:0.233832 
1024 1:-0.426031 2:0.0258534 
-1024 1:0.0625306 2:-0.479077 
1024 1:0.643265 2:-0.660422 
1024 1:0.669502 2:-0.628218 
-1024 1:0.413228 2:-0.527088 
-1024 1:-0.576655 2:0.134534 
1024 1:0.0759319 2:-0.510309 
-1024 1:0.101767 2:-0.26796 
1024 1:-0.509676 2:0.0664315 
1024 1:-0.151674 2:0.254808 
-1024 1:-0.124186 2:-0.170278 
1024 1:0.212551 2:-0.556544 
-1024 1:-0.339831 2:0.196249 
1024 1:0.128999 2:0.32603 
1024 1:-0.286829 2:-0.283353 
1024 1:-0.768065 2:0.311664 
1024 1:-0.0848571 2:-0.571368 
1024 1:0.031627 2:-0.571628 
1024 1:-0.331384 2:0.161588 
-1024 1:-0.00901763 2:-0.0597097 
1024 1:-0.762719 2:0.447387 
810.3342466968628 1:0.892501 2:-0.853044 
-1024 1:0.605982 2:-0.589267 
-1024 1:0.566865 2:-0.750441 
-1024 1:-0.669377 2:0.456714 
-1024 1:0.0142389 2:-0.403249 
-1024 1:0.408747 2:-0.0556432 
-1024 1:-0.400017 2:0.241166 
1024 1:-0.852868 2:0.535339 
-1024 1:-0.703174 2:-0.446551 
-1024 1:-0.353559 2:0.282376 
1024 1:-0.264834 2:0.171516 
-1024 1:-0.485685 2:0.574506 
-1024 1:-0.391892 2:0.252963 
1024 1:0.0664955 2:-0.0719958 
1024 1:-0.423192 2:0.749321 
1024 1:-0.608152 2:0.229103 
1024 1:-0.641253 2:0.528425 
-1024 1:-0.604073 2:0.586117 
1024 1:0.645843 2:-0.439284 
1024 1:0.466747 2:-0.495423 
1024 1:0.0742677 2:-0.590456 
1024 1:0.417226 2:-0.255618 
-1024 1:0.291235 2:-0.477343 
1024 1:0.335893 2:-0.39014 
1024 1:-0.158021 2:-0.521561 
1024 1:0.128074 2:0.003169 
1024 1:-0.0182637 2:0.0375948 
-1024 1:-0.130957 2:-0.12184 
-1024 1:-0.309373 2:0.108062 
-1024 1:-0.359242 2:-0.170594 
-1024 1:-0.35828 2:0.262322 
-1024 1:0.0424938 2:-0.330548 
-1024 1:0.0805604 2:0.0598706 
1024 1:0.266031 2:0.149024 
1024 1:-0.203141 2:-0.228441 
1024 1:0.459132 2:-0.71492 
-1024 1:-0.537544 2:0.636072 
-1024 1:-0.00387247 2:-0.325683 
-1024 1:0.240033 2:-0.700412 
-1024 1:0.714492 2:-0.769071 
1024 1:-0.758205 2:0.30446 
-1024 1:0.493446 2:-0.788228 
-1024 1:-0.428871 2:0.230347 
-1024 1:-0.4692 2:-0.0508217 
-1024 1:-0.0157945 2:-0.114753 
1024 1:-0.720791 2:0.37851 
1024 1:0.783588 2:-0.589107 
-1024 1:0.815003 2:-0.596045 
-1024 1:0.722749 2:-0.970811 
-1024 1:-0.0115086 2:-0.0768607 
-1024 1:0.832782 2:-0.435329 
1024 1:0.2012 2:-0.38777 
-1024 1:0.261452 2:-0.724216 
-1024 1:-0.530735 2:0.401492 
-1024 1:-0.381596 2:0.595414 
1024 1:-0.274858 2:0.341472 
1024 1:-0.255958 2:0.19339 
-1024 1:-0.960965 2:0.39706 
1024 1:0.37229 2:-0.267892 
-1024 1:-0.321464 2:0.522397 
-1024 1:-0.266673 2:-0.0254882 
1024 1:-0.260114 2:0.435398 
-1024 1:0.748322 2:-0.911751 
-1024 1:-0.834947 2:0.561409 
-1024 1:0.38791 2:-0.864488 
-1024 1:0.747838 2:-0.922106 
1024 1:0.465539 2:-0.221341 
1024 1:-0.47936 2:-0.0535264 
1024 1:-0.36808 2:-0.265942 
1024 1:-0.834762 2:-0.2946 
1024 1:-0.28064 2:-0.0173614 
1024 1:-0.783783 2:0.355263 
1024 1:0.402791 2:0.158958 
1024 1:-0.284561 2:0.0577167 
1024 1:-0.785431 2:0.126358 
1024 1:-0.0172358 2:-0.454975 
-1024 1:-0.604687 2:0.803299 
-1024 1:-0.189387 2:-0.0527342 
-1024 1:-0.629309 2:0.831721 
-1024 1:-0.353401 2:0.374927 
1024 1:0.148862 2:-0.610794 
1024 1:-0.649384 2:0.119964 
-1024 1:-0.791376 2:0.453923 
-1024 1:0.143581 2:-0.199938 
1024 1:-0.257253 2:0.0443227 
-1024 1:-0.678057 2:0.377384 
1024 1:-0.675887 2:0.214477 
1024 1:-0.0248991 2:0.0170581 
1024 1:-0.410531 2:0.291171 
1024 1:0.171025 2:-0.577118 
-1024 1:-0.743737 2:0.339356 
-1024 1:0.428425 2:-0.414712 
1024 1:-0.698203 2:0.528307 
1024 1:0.66644 2:-0.749655 
-1024 1:-0.615456 2:0.840033 
-1024 1:-0.716015 2:-0.109547 
-1024 1:-0.0919222 2:0.164175 
-1024 1:-0.384799 2:0.317482 
-1024 1:0.862353 2:-0.951877 
1024 1:-0.564608 2:0.262439 
-1024 1:-0.86485 2:0.416346 
1024 1:0.483944 2:-0.771225 
-1024 1:-0.0613177 2:-0.324321 
1024 1:-0.285247 2:0.0130226 
-1024 1:-0.528804 2:0.537462 
1024 1:-0.810624 2:0.55478 
-1024 1:0.430622 2:-0.753703 
-1024 1:0.406201 2:-0.787924 
-1024 1:-0.0979593 2:0.156748 
-1024 1:0.0536435 2:0.119067 
-1024 1:0.886235 2:-0.963006 
1024 1:-0.13942 2:0.0970507 
1024 1:-0.9205 2:0.534751 
-1024 1:-0.440591 2:0.350206 
1024 1:0.695625 2:-0.907554 
1024 1:-0.0648856 2:-0.173744 
-1024 1:0.656356 2:-0.805342 
1024 1:-0.855076 2:-0.118243 
1024 1:-0.368483 2:0.0788166 
1024 1:-0.910765 2:0.551908 
-1024 1:0.456016 2:-0.464723 
1024 1:-0.454515 2:0.311515 
1024 1:0.05013 2:-0.33576 
-1024 1:-0.218006 2:-0.0464457 
1024 1:-0.608587 2:0.209346 
-1024 1:0.391168 2:-0.665051 
1024 1:-0.124028 2:0.536044 
-1024 1:-0.892332 2:0.550769 
1024 1:-0.476803 2:0.274781 
1024 1:0.86764 2:-0.805509 
-1024 1:-0.442859 2:-0.0424287 
-1024 1:0.433439 2:-0.886194 
-1024 1:-0.71087 2:-0.123418 
-1024 1:0.326109 2:-0.183771 
1024 1:-0.305251 2:-0.0239408 
-1024 1:-0.413305 2:0.365958 
1024 1:-0.111932 2:-0.274806 
-1024 1:-0.0682795 2:-0.410268 
1024 1:-0.451926 2:-0.125677 
1024 1:-0.230586 2:-0.0908427 
